<?xml version="1.0"?>
<opencv_storage>
<cascade>
  <stageType>BOOST</stageType>
  <featureType>HAAR</featureType>
  <height>24</height>
  <width>24</width>
  <stageParams>
    <boostType>GAB</boostType>
    <minHitRate>9.9500000476837158e-01</minHitRate>
    <maxFalseAlarm>3.0000001192092896e-01</maxFalseAlarm>
    <weightTrimRate>9.4999999999999996e-01</weightTrimRate>
    <maxDepth>1</maxDepth>
    <maxWeakCount>100</maxWeakCount></stageParams>
  <featureParams>
    <maxCatCount>0</maxCatCount>
    <featSize>1</featSize>
    <mode>BASIC</mode></featureParams>
  <stageNum>20</stageNum>
  <stages>
    <!-- stage 0 -->
    <_>
      <maxWeakCount>2</maxWeakCount>
      <stageThreshold>3.0917724594473839e-02</stageThreshold>
      <weakClassifiers>
        <_>
          <internalNodes>
            0 -1 117 -7.5374022126197815e-03</internalNodes>
          <leafValues>
            -9.3969851732254028e-01 9.4422310590744019e-01</leafValues></_>
        <_>
          <internalNodes>
            0 -1 99 -4.2042456567287445e-02</internalNodes>
          <leafValues>
            9.7061622142791748e-01 -8.8805407285690308e-01</leafValues></_></weakClassifiers></_>
    <!-- stage 1 -->
    <_>
      <maxWeakCount>2</maxWeakCount>
      <stageThreshold>3.1023731455206871e-02</stageThreshold>
      <weakClassifiers>
        <_>
          <internalNodes>
            0 -1 57 1.5273933112621307e-01</internalNodes>
          <leafValues>
            -8.6341464519500732e-01 9.2653059959411621e-01</leafValues></_>
        <_>
          <internalNodes>
            0 -1 10 2.7462281286716461e-02</internalNodes>
          <leafValues>
            -8.9139509201049805e-01 8.9443838596343994e-01</leafValues></_></weakClassifiers></_>
    <!-- stage 2 -->
    <_>
      <maxWeakCount>5</maxWeakCount>
      <stageThreshold>-9.9646186828613281e-01</stageThreshold>
      <weakClassifiers>
        <_>
          <internalNodes>
            0 -1 32 -1.5931898355484009e-01</internalNodes>
          <leafValues>
            8.2857143878936768e-01 -7.4634146690368652e-01</leafValues></_>
        <_>
          <internalNodes>
            0 -1 101 -5.4880991578102112e-02</internalNodes>
          <leafValues>
            6.9955629110336304e-01 -7.2684258222579956e-01</leafValues></_>
        <_>
          <internalNodes>
            0 -1 124 -1.0926069691777229e-02</internalNodes>
          <leafValues>
            -9.1742241382598877e-01 5.7357180118560791e-01</leafValues></_>
        <_>
          <internalNodes>
            0 -1 37 2.8293770551681519e-01</internalNodes>
          <leafValues>
            -6.6351985931396484e-01 7.1932810544967651e-01</leafValues></_>
        <_>
          <internalNodes>
            0 -1 75 1.1230856180191040e-03</internalNodes>
          <leafValues>
            -6.4699268341064453e-01 5.6667017936706543e-01</leafValues></_></weakClassifiers></_>
    <!-- stage 3 -->
    <_>
      <maxWeakCount>6</maxWeakCount>
      <stageThreshold>-7.7884626388549805e-01</stageThreshold>
      <weakClassifiers>
        <_>
          <internalNodes>
            0 -1 97 -9.1126441955566406e-02</internalNodes>
          <leafValues>
            7.8813558816909790e-01 -6.3551402091979980e-01</leafValues></_>
        <_>
          <internalNodes>
            0 -1 8 6.5159365534782410e-02</internalNodes>
          <leafValues>
            -5.6412303447723389e-01 7.6037549972534180e-01</leafValues></_>
        <_>
          <internalNodes>
            0 -1 62 -3.7784904241561890e-02</internalNodes>
          <leafValues>
            5.7216572761535645e-01 -6.8153595924377441e-01</leafValues></_>
        <_>
          <internalNodes>
            0 -1 41 -4.7988360747694969e-03</internalNodes>
          <leafValues>
            -9.4786697626113892e-01 3.1581440567970276e-01</leafValues></_>
        <_>
          <internalNodes>
            0 -1 100 3.1669938471168280e-04</internalNodes>
          <leafValues>
            3.2438775897026062e-01 -8.6728066205978394e-01</leafValues></_>
        <_>
          <internalNodes>
            0 -1 107 -5.2148983813822269e-03</internalNodes>
          <leafValues>
            4.0009129047393799e-01 -6.4282733201980591e-01</leafValues></_></weakClassifiers></_>
    <!-- stage 4 -->
    <_>
      <maxWeakCount>5</maxWeakCount>
      <stageThreshold>-7.5072824954986572e-01</stageThreshold>
      <weakClassifiers>
        <_>
          <internalNodes>
            0 -1 29 3.6287447810173035e-01</internalNodes>
          <leafValues>
            -6.8181818723678589e-01 6.2043797969818115e-01</leafValues></_>
        <_>
          <internalNodes>
            0 -1 46 -6.2537621706724167e-03</internalNodes>
          <leafValues>
            -8.0471366643905640e-01 5.3494203090667725e-01</leafValues></_>
        <_>
          <internalNodes>
            0 -1 14 5.9054978191852570e-02</internalNodes>
          <leafValues>
            -5.7290810346603394e-01 6.4464205503463745e-01</leafValues></_>
        <_>
          <internalNodes>
            0 -1 31 6.9536478258669376e-04</internalNodes>
          <leafValues>
            -6.6134333610534668e-01 4.5863458514213562e-01</leafValues></_>
        <_>
          <internalNodes>
            0 -1 95 8.4470311412587762e-04</internalNodes>
          <leafValues>
            -4.8957860469818115e-01 7.1632856130599976e-01</leafValues></_></weakClassifiers></_>
    <!-- stage 5 -->
    <_>
      <maxWeakCount>7</maxWeakCount>
      <stageThreshold>-6.1312276124954224e-01</stageThreshold>
      <weakClassifiers>
        <_>
          <internalNodes>
            0 -1 28 3.9631998538970947e-01</internalNodes>
          <leafValues>
            -5.4464286565780640e-01 7.6106196641921997e-01</leafValues></_>
        <_>
          <internalNodes>
            0 -1 33 -6.9886013865470886e-02</internalNodes>
          <leafValues>
            6.9045788049697876e-01 -4.8995846509933472e-01</leafValues></_>
        <_>
          <internalNodes>
            0 -1 64 -2.0368201658129692e-02</internalNodes>
          <leafValues>
            -9.5660531520843506e-01 3.3006039261817932e-01</leafValues></_>
        <_>
          <internalNodes>
            0 -1 93 -3.7679684464819729e-04</internalNodes>
          <leafValues>
            5.2078866958618164e-01 -6.4224427938461304e-01</leafValues></_>
        <_>
          <internalNodes>
            0 -1 108 -2.3361824452877045e-02</internalNodes>
          <leafValues>
            5.8954507112503052e-01 -5.4044920206069946e-01</leafValues></_>
        <_>
          <internalNodes>
            0 -1 89 2.3049492388963699e-02</internalNodes>
          <leafValues>
            -4.1974300146102905e-01 7.2075456380844116e-01</leafValues></_>
        <_>
          <internalNodes>
            0 -1 16 2.4219501763582230e-02</internalNodes>
          <leafValues>
            -5.6757926940917969e-01 5.6386035680770874e-01</leafValues></_></weakClassifiers></_>
    <!-- stage 6 -->
    <_>
      <maxWeakCount>6</maxWeakCount>
      <stageThreshold>-2.1920663118362427e-01</stageThreshold>
      <weakClassifiers>
        <_>
          <internalNodes>
            0 -1 51 -8.6946383118629456e-02</internalNodes>
          <leafValues>
            7.1287131309509277e-01 -3.7903225421905518e-01</leafValues></_>
        <_>
          <internalNodes>
            0 -1 9 6.3310749828815460e-03</internalNodes>
          <leafValues>
            -5.9485846757888794e-01 5.2682244777679443e-01</leafValues></_>
        <_>
          <internalNodes>
            0 -1 71 2.5605153496144339e-05</internalNodes>
          <leafValues>
            -6.3437116146087646e-01 3.8182103633880615e-01</leafValues></_>
        <_>
          <internalNodes>
            0 -1 74 9.4036178779788315e-05</internalNodes>
          <leafValues>
            -5.9138345718383789e-01 4.8667138814926147e-01</leafValues></_>
        <_>
          <internalNodes>
            0 -1 90 -3.7059120833873749e-02</internalNodes>
          <leafValues>
            6.0716658830642700e-01 -5.0312787294387817e-01</leafValues></_>
        <_>
          <internalNodes>
            0 -1 27 5.5265920236706734e-03</internalNodes>
          <leafValues>
            -5.8692592382431030e-01 3.8931950926780701e-01</leafValues></_></weakClassifiers></_>
    <!-- stage 7 -->
    <_>
      <maxWeakCount>9</maxWeakCount>
      <stageThreshold>-7.7503806352615356e-01</stageThreshold>
      <weakClassifiers>
        <_>
          <internalNodes>
            0 -1 103 -5.0085857510566711e-02</internalNodes>
          <leafValues>
            5.6692916154861450e-01 -4.7959184646606445e-01</leafValues></_>
        <_>
          <internalNodes>
            0 -1 13 7.0246648974716663e-03</internalNodes>
          <leafValues>
            -6.5782427787780762e-01 3.9512157440185547e-01</leafValues></_>
        <_>
          <internalNodes>
            0 -1 114 -4.3546505272388458e-02</internalNodes>
          <leafValues>
            -7.0866757631301880e-01 3.0757316946983337e-01</leafValues></_>
        <_>
          <internalNodes>
            0 -1 25 2.1405231673270464e-03</internalNodes>
          <leafValues>
            -7.8288269042968750e-01 3.0286237597465515e-01</leafValues></_>
        <_>
          <internalNodes>
            0 -1 48 3.0796675011515617e-02</internalNodes>
          <leafValues>
            -3.2786002755165100e-01 7.0018935203552246e-01</leafValues></_>
        <_>
          <internalNodes>
            0 -1 58 3.1412218231707811e-04</internalNodes>
          <leafValues>
            -4.2066639661788940e-01 6.0155385732650757e-01</leafValues></_>
        <_>
          <internalNodes>
            0 -1 56 7.0220390334725380e-03</internalNodes>
          <leafValues>
            -3.3236992359161377e-01 5.7019448280334473e-01</leafValues></_>
        <_>
          <internalNodes>
            0 -1 54 3.5653100349009037e-04</internalNodes>
          <leafValues>
            -4.2240935564041138e-01 6.3020551204681396e-01</leafValues></_>
        <_>
          <internalNodes>
            0 -1 18 -1.7578415572643280e-02</internalNodes>
          <leafValues>
            -9.3224328756332397e-01 2.3302790522575378e-01</leafValues></_></weakClassifiers></_>
    <!-- stage 8 -->
    <_>
      <maxWeakCount>2</maxWeakCount>
      <stageThreshold>-4.7932267189025879e-01</stageThreshold>
      <weakClassifiers>
        <_>
          <internalNodes>
            0 -1 19 8.2617654697969556e-04</internalNodes>
          <leafValues>
            -9.0243899822235107e-01 6.9230771064758301e-01</leafValues></_>
        <_>
          <internalNodes>
            0 -1 81 -3.7577249109745026e-02</internalNodes>
          <leafValues>
            4.2311635613441467e-01 -8.3958756923675537e-01</leafValues></_></weakClassifiers></_>
    <!-- stage 9 -->
    <_>
      <maxWeakCount>8</maxWeakCount>
      <stageThreshold>-3.6694994568824768e-01</stageThreshold>
      <weakClassifiers>
        <_>
          <internalNodes>
            0 -1 45 -4.9165934324264526e-02</internalNodes>
          <leafValues>
            5.6000000238418579e-01 -7.8666669130325317e-01</leafValues></_>
        <_>
          <internalNodes>
            0 -1 105 1.1684783734381199e-02</internalNodes>
          <leafValues>
            -6.2994939088821411e-01 4.4302600622177124e-01</leafValues></_>
        <_>
          <internalNodes>
            0 -1 116 1.0112760355696082e-04</internalNodes>
          <leafValues>
            2.7756121754646301e-01 -7.5324577093124390e-01</leafValues></_>
        <_>
          <internalNodes>
            0 -1 36 -6.7131267860531807e-04</internalNodes>
          <leafValues>
            -7.8700751066207886e-01 3.0253630876541138e-01</leafValues></_>
        <_>
          <internalNodes>
            0 -1 11 4.3446935713291168e-02</internalNodes>
          <leafValues>
            -3.6681702733039856e-01 7.3572456836700439e-01</leafValues></_>
        <_>
          <internalNodes>
            0 -1 113 5.7217024732381105e-04</internalNodes>
          <leafValues>
            2.6627650856971741e-01 -8.6059457063674927e-01</leafValues></_>
        <_>
          <internalNodes>
            0 -1 70 -1.3480094261467457e-02</internalNodes>
          <leafValues>
            -8.3041882514953613e-01 2.1008796989917755e-01</leafValues></_>
        <_>
          <internalNodes>
            0 -1 86 -1.4858229551464319e-03</internalNodes>
          <leafValues>
            3.6002114415168762e-01 -6.0545122623443604e-01</leafValues></_></weakClassifiers></_>
    <!-- stage 10 -->
    <_>
      <maxWeakCount>9</maxWeakCount>
      <stageThreshold>-2.9986155033111572e-01</stageThreshold>
      <weakClassifiers>
        <_>
          <internalNodes>
            0 -1 79 8.1266507506370544e-02</internalNodes>
          <leafValues>
            -7.8181821107864380e-01 4.0000000596046448e-01</leafValues></_>
        <_>
          <internalNodes>
            0 -1 123 2.9281782917678356e-03</internalNodes>
          <leafValues>
            2.5191152095794678e-01 -8.6138093471527100e-01</leafValues></_>
        <_>
          <internalNodes>
            0 -1 0 1.9002575427293777e-02</internalNodes>
          <leafValues>
            -4.9795576930046082e-01 4.1533231735229492e-01</leafValues></_>
        <_>
          <internalNodes>
            0 -1 88 1.3673776993528008e-04</internalNodes>
          <leafValues>
            -3.6208519339561462e-01 6.3003242015838623e-01</leafValues></_>
        <_>
          <internalNodes>
            0 -1 118 -1.0657564416760579e-04</internalNodes>
          <leafValues>
            -7.7785754203796387e-01 2.7547088265419006e-01</leafValues></_>
        <_>
          <internalNodes>
            0 -1 73 8.5167661309242249e-03</internalNodes>
          <leafValues>
            -5.0296390056610107e-01 4.1741341352462769e-01</leafValues></_>
        <_>
          <internalNodes>
            0 -1 17 2.6508742943406105e-02</internalNodes>
          <leafValues>
            -5.6592047214508057e-01 3.9861539006233215e-01</leafValues></_>
        <_>
          <internalNodes>
            0 -1 115 -2.1490061772055924e-04</internalNodes>
          <leafValues>
            3.9819344878196716e-01 -4.8779693245887756e-01</leafValues></_>
        <_>
          <internalNodes>
            0 -1 53 -4.1512091411277652e-04</internalNodes>
          <leafValues>
            5.6492882966995239e-01 -3.4667900204658508e-01</leafValues></_></weakClassifiers></_>
    <!-- stage 11 -->
    <_>
      <maxWeakCount>10</maxWeakCount>
      <stageThreshold>-5.8738702535629272e-01</stageThreshold>
      <weakClassifiers>
        <_>
          <internalNodes>
            0 -1 26 -2.5725388899445534e-02</internalNodes>
          <leafValues>
            5.1282054185867310e-01 -7.9710143804550171e-01</leafValues></_>
        <_>
          <internalNodes>
            0 -1 66 -8.2609206438064575e-02</internalNodes>
          <leafValues>
            3.0444926023483276e-01 -6.4920550584793091e-01</leafValues></_>
        <_>
          <internalNodes>
            0 -1 12 -2.8704833239316940e-03</internalNodes>
          <leafValues>
            -9.1950654983520508e-01 1.9952368736267090e-01</leafValues></_>
        <_>
          <internalNodes>
            0 -1 38 -1.0350141674280167e-02</internalNodes>
          <leafValues>
            -7.8236848115921021e-01 2.4047659337520599e-01</leafValues></_>
        <_>
          <internalNodes>
            0 -1 72 1.8375057261437178e-03</internalNodes>
          <leafValues>
            -5.3255331516265869e-01 3.5719576478004456e-01</leafValues></_>
        <_>
          <internalNodes>
            0 -1 80 1.3522867811843753e-04</internalNodes>
          <leafValues>
            -5.4253804683685303e-01 3.6024206876754761e-01</leafValues></_>
        <_>
          <internalNodes>
            0 -1 24 2.7669752016663551e-03</internalNodes>
          <leafValues>
            -3.8521736860275269e-01 4.9135872721672058e-01</leafValues></_>
        <_>
          <internalNodes>
            0 -1 44 -1.0206060484051704e-02</internalNodes>
          <leafValues>
            3.2101333141326904e-01 -5.7256257534027100e-01</leafValues></_>
        <_>
          <internalNodes>
            0 -1 49 1.8547907238826156e-03</internalNodes>
          <leafValues>
            -7.0772933959960938e-01 2.6919966936111450e-01</leafValues></_>
        <_>
          <internalNodes>
            0 -1 110 -1.7422776669263840e-02</internalNodes>
          <leafValues>
            4.5925241708755493e-01 -4.2654114961624146e-01</leafValues></_></weakClassifiers></_>
    <!-- stage 12 -->
    <_>
      <maxWeakCount>2</maxWeakCount>
      <stageThreshold>-4.6669960021972656e-01</stageThreshold>
      <weakClassifiers>
        <_>
          <internalNodes>
            0 -1 67 3.3294896129518747e-03</internalNodes>
          <leafValues>
            8.3025830984115601e-01 -9.7765362262725830e-01</leafValues></_>
        <_>
          <internalNodes>
            0 -1 68 -4.2395762284286320e-04</internalNodes>
          <leafValues>
            -8.9221656322479248e-01 5.1095402240753174e-01</leafValues></_></weakClassifiers></_>
    <!-- stage 13 -->
    <_>
      <maxWeakCount>1</maxWeakCount>
      <stageThreshold>6.8243241310119629e-01</stageThreshold>
      <weakClassifiers>
        <_>
          <internalNodes>
            0 -1 60 3.1379866413772106e-03</internalNodes>
          <leafValues>
            6.8243241310119629e-01 -9.8701298236846924e-01</leafValues></_></weakClassifiers></_>
    <!-- stage 14 -->
    <_>
      <maxWeakCount>10</maxWeakCount>
      <stageThreshold>-6.1819326877593994e-01</stageThreshold>
      <weakClassifiers>
        <_>
          <internalNodes>
            0 -1 34 -1.7525242269039154e-01</internalNodes>
          <leafValues>
            6.7136150598526001e-01 -3.9240506291389465e-01</leafValues></_>
        <_>
          <internalNodes>
            0 -1 119 7.5977563392370939e-04</internalNodes>
          <leafValues>
            2.6543220877647400e-01 -8.5086524486541748e-01</leafValues></_>
        <_>
          <internalNodes>
            0 -1 2 2.2935066372156143e-03</internalNodes>
          <leafValues>
            -5.4078966379165649e-01 3.5481357574462891e-01</leafValues></_>
        <_>
          <internalNodes>
            0 -1 5 8.0911871045827866e-03</internalNodes>
          <leafValues>
            1.9587141275405884e-01 -7.7106869220733643e-01</leafValues></_>
        <_>
          <internalNodes>
            0 -1 109 -9.4510056078433990e-03</internalNodes>
          <leafValues>
            2.8219953179359436e-01 -5.5447238683700562e-01</leafValues></_>
        <_>
          <internalNodes>
            0 -1 82 -2.6447869837284088e-02</internalNodes>
          <leafValues>
            8.1410634517669678e-01 -2.0542073249816895e-01</leafValues></_>
        <_>
          <internalNodes>
            0 -1 6 -3.3339770743623376e-04</internalNodes>
          <leafValues>
            -7.6238137483596802e-01 2.1669928729534149e-01</leafValues></_>
        <_>
          <internalNodes>
            0 -1 122 -1.9929207337554544e-04</internalNodes>
          <leafValues>
            -7.3089736700057983e-01 2.0260745286941528e-01</leafValues></_>
        <_>
          <internalNodes>
            0 -1 21 -5.8558057993650436e-02</internalNodes>
          <leafValues>
            6.2745118141174316e-01 -2.9456433653831482e-01</leafValues></_>
        <_>
          <internalNodes>
            0 -1 61 1.2668692506849766e-03</internalNodes>
          <leafValues>
            -2.7409264445304871e-01 6.5701830387115479e-01</leafValues></_></weakClassifiers></_>
    <!-- stage 15 -->
    <_>
      <maxWeakCount>10</maxWeakCount>
      <stageThreshold>-4.2676085233688354e-01</stageThreshold>
      <weakClassifiers>
        <_>
          <internalNodes>
            0 -1 47 1.7624253034591675e-01</internalNodes>
          <leafValues>
            -3.6125653982162476e-01 4.5945945382118225e-01</leafValues></_>
        <_>
          <internalNodes>
            0 -1 84 1.4154566451907158e-03</internalNodes>
          <leafValues>
            -3.5295429825782776e-01 4.8278397321701050e-01</leafValues></_>
        <_>
          <internalNodes>
            0 -1 42 -1.3615166768431664e-02</internalNodes>
          <leafValues>
            7.5297725200653076e-01 -2.3469255864620209e-01</leafValues></_>
        <_>
          <internalNodes>
            0 -1 3 1.9025088986381888e-03</internalNodes>
          <leafValues>
            2.4299076199531555e-01 -8.4159272909164429e-01</leafValues></_>
        <_>
          <internalNodes>
            0 -1 120 -7.2314112912863493e-04</internalNodes>
          <leafValues>
            -5.7513552904129028e-01 2.5914496183395386e-01</leafValues></_>
        <_>
          <internalNodes>
            0 -1 43 3.8975256029516459e-04</internalNodes>
          <leafValues>
            -3.9349296689033508e-01 4.6006986498832703e-01</leafValues></_>
        <_>
          <internalNodes>
            0 -1 112 -1.6270403284579515e-04</internalNodes>
          <leafValues>
            2.2366324067115784e-01 -7.6021939516067505e-01</leafValues></_>
        <_>
          <internalNodes>
            0 -1 77 1.2484778417274356e-03</internalNodes>
          <leafValues>
            -3.5745713114738464e-01 5.1399767398834229e-01</leafValues></_>
        <_>
          <internalNodes>
            0 -1 55 -1.0349620133638382e-03</internalNodes>
          <leafValues>
            -5.3217774629592896e-01 3.9026317000389099e-01</leafValues></_>
        <_>
          <internalNodes>
            0 -1 92 4.1322002653032541e-04</internalNodes>
          <leafValues>
            -4.3645203113555908e-01 4.5521491765975952e-01</leafValues></_></weakClassifiers></_>
    <!-- stage 16 -->
    <_>
      <maxWeakCount>10</maxWeakCount>
      <stageThreshold>-5.8539772033691406e-01</stageThreshold>
      <weakClassifiers>
        <_>
          <internalNodes>
            0 -1 94 -2.9256637208163738e-04</internalNodes>
          <leafValues>
            -8.8235294818878174e-01 3.4246575832366943e-01</leafValues></_>
        <_>
          <internalNodes>
            0 -1 51 -1.0286892950534821e-01</internalNodes>
          <leafValues>
            6.2146311998367310e-01 -3.8191846013069153e-01</leafValues></_>
        <_>
          <internalNodes>
            0 -1 39 1.8492512404918671e-02</internalNodes>
          <leafValues>
            -2.4322673678398132e-01 6.2278121709823608e-01</leafValues></_>
        <_>
          <internalNodes>
            0 -1 106 -3.8783691707067192e-04</internalNodes>
          <leafValues>
            -5.7474458217620850e-01 2.9091495275497437e-01</leafValues></_>
        <_>
          <internalNodes>
            0 -1 121 -3.7964964576531202e-05</internalNodes>
          <leafValues>
            -5.7012146711349487e-01 2.3279608786106110e-01</leafValues></_>
        <_>
          <internalNodes>
            0 -1 40 -8.1367626786231995e-02</internalNodes>
          <leafValues>
            3.1872236728668213e-01 -5.3098583221435547e-01</leafValues></_>
        <_>
          <internalNodes>
            0 -1 65 2.1795220673084259e-02</internalNodes>
          <leafValues>
            -5.5918461084365845e-01 3.1285017728805542e-01</leafValues></_>
        <_>
          <internalNodes>
            0 -1 30 3.2707434147596359e-03</internalNodes>
          <leafValues>
            -2.8889936208724976e-01 6.4901167154312134e-01</leafValues></_>
        <_>
          <internalNodes>
            0 -1 83 8.9861080050468445e-04</internalNodes>
          <leafValues>
            2.1144241094589233e-01 -9.6820878982543945e-01</leafValues></_>
        <_>
          <internalNodes>
            0 -1 98 4.5172912068665028e-03</internalNodes>
          <leafValues>
            -2.2160245478153229e-01 8.6853039264678955e-01</leafValues></_></weakClassifiers></_>
    <!-- stage 17 -->
    <_>
      <maxWeakCount>6</maxWeakCount>
      <stageThreshold>-4.8738795518875122e-01</stageThreshold>
      <weakClassifiers>
        <_>
          <internalNodes>
            0 -1 35 7.5169593095779419e-02</internalNodes>
          <leafValues>
            5.3230768442153931e-01 -9.8400002717971802e-01</leafValues></_>
        <_>
          <internalNodes>
            0 -1 15 -1.4333183644339442e-03</internalNodes>
          <leafValues>
            -6.6007375717163086e-01 3.4514003992080688e-01</leafValues></_>
        <_>
          <internalNodes>
            0 -1 102 -9.4852373003959656e-02</internalNodes>
          <leafValues>
            5.6528723239898682e-01 -4.5408478379249573e-01</leafValues></_>
        <_>
          <internalNodes>
            0 -1 111 2.0524137653410435e-03</internalNodes>
          <leafValues>
            2.2238937020301819e-01 -9.3149179220199585e-01</leafValues></_>
        <_>
          <internalNodes>
            0 -1 69 -9.5022022724151611e-03</internalNodes>
          <leafValues>
            -7.3664921522140503e-01 2.4467460811138153e-01</leafValues></_>
        <_>
          <internalNodes>
            0 -1 20 7.1435086429119110e-02</internalNodes>
          <leafValues>
            -3.7260109186172485e-01 6.1565226316452026e-01</leafValues></_></weakClassifiers></_>
    <!-- stage 18 -->
    <_>
      <maxWeakCount>8</maxWeakCount>
      <stageThreshold>-4.4294947385787964e-01</stageThreshold>
      <weakClassifiers>
        <_>
          <internalNodes>
            0 -1 23 8.6534756701439619e-04</internalNodes>
          <leafValues>
            3.9828079938888550e-01 -8.8118809461593628e-01</leafValues></_>
        <_>
          <internalNodes>
            0 -1 87 7.0067471824586391e-04</internalNodes>
          <leafValues>
            -5.9789663553237915e-01 3.9811706542968750e-01</leafValues></_>
        <_>
          <internalNodes>
            0 -1 104 -3.1640585511922836e-02</internalNodes>
          <leafValues>
            2.8793540596961975e-01 -7.2679573297500610e-01</leafValues></_>
        <_>
          <internalNodes>
            0 -1 7 3.9325619582086802e-04</internalNodes>
          <leafValues>
            3.4959048032760620e-01 -5.0904381275177002e-01</leafValues></_>
        <_>
          <internalNodes>
            0 -1 22 -4.7145869582891464e-02</internalNodes>
          <leafValues>
            3.6998498439788818e-01 -6.0675448179244995e-01</leafValues></_>
        <_>
          <internalNodes>
            0 -1 4 2.6466818526387215e-03</internalNodes>
          <leafValues>
            -5.1013374328613281e-01 3.7597003579139709e-01</leafValues></_>
        <_>
          <internalNodes>
            0 -1 59 3.4979086194653064e-05</internalNodes>
          <leafValues>
            -5.8454561233520508e-01 3.2814982533454895e-01</leafValues></_>
        <_>
          <internalNodes>
            0 -1 91 -5.6686135940253735e-04</internalNodes>
          <leafValues>
            -8.8451576232910156e-01 1.9133408367633820e-01</leafValues></_></weakClassifiers></_>
    <!-- stage 19 -->
    <_>
      <maxWeakCount>8</maxWeakCount>
      <stageThreshold>-1.0066604614257813e+00</stageThreshold>
      <weakClassifiers>
        <_>
          <internalNodes>
            0 -1 50 1.9775135442614555e-03</internalNodes>
          <leafValues>
            -5.8940398693084717e-01 4.6488294005393982e-01</leafValues></_>
        <_>
          <internalNodes>
            0 -1 85 -1.8043565750122070e-01</internalNodes>
          <leafValues>
            5.3636997938156128e-01 -4.4591042399406433e-01</leafValues></_>
        <_>
          <internalNodes>
            0 -1 52 -1.5873310621827841e-04</internalNodes>
          <leafValues>
            4.8093882203102112e-01 -4.2098015546798706e-01</leafValues></_>
        <_>
          <internalNodes>
            0 -1 63 3.8139295065775514e-04</internalNodes>
          <leafValues>
            -4.8852732777595520e-01 4.1809418797492981e-01</leafValues></_>
        <_>
          <internalNodes>
            0 -1 1 4.6062212437391281e-02</internalNodes>
          <leafValues>
            -5.3993093967437744e-01 5.4843550920486450e-01</leafValues></_>
        <_>
          <internalNodes>
            0 -1 96 1.0237975511699915e-03</internalNodes>
          <leafValues>
            -5.7698124647140503e-01 3.6689481139183044e-01</leafValues></_>
        <_>
          <internalNodes>
            0 -1 78 -4.4138625264167786e-02</internalNodes>
          <leafValues>
            -6.0945624113082886e-01 3.5084778070449829e-01</leafValues></_>
        <_>
          <internalNodes>
            0 -1 76 -3.2390430569648743e-03</internalNodes>
          <leafValues>
            5.8242666721343994e-01 -3.8004255294799805e-01</leafValues></_></weakClassifiers></_></stages>
  <features>
    <_>
      <rects>
        <_>
          0 1 6 12 -1.</_>
        <_>
          0 1 3 6 2.</_>
        <_>
          3 7 3 6 2.</_></rects>
      <tilted>0</tilted></_>
    <_>
      <rects>
        <_>
          0 1 14 22 -1.</_>
        <_>
          0 1 7 11 2.</_>
        <_>
          7 12 7 11 2.</_></rects>
      <tilted>0</tilted></_>
    <_>
      <rects>
        <_>
          0 2 14 5 -1.</_>
        <_>
          7 2 7 5 2.</_></rects>
      <tilted>0</tilted></_>
    <_>
      <rects>
        <_>
          0 4 1 10 -1.</_>
        <_>
          0 9 1 5 2.</_></rects>
      <tilted>0</tilted></_>
    <_>
      <rects>
        <_>
          0 5 22 2 -1.</_>
        <_>
          0 6 22 1 2.</_></rects>
      <tilted>0</tilted></_>
    <_>
      <rects>
        <_>
          0 6 2 14 -1.</_>
        <_>
          0 13 2 7 2.</_></rects>
      <tilted>0</tilted></_>
    <_>
      <rects>
        <_>
          0 6 5 2 -1.</_>
        <_>
          0 7 5 1 2.</_></rects>
      <tilted>0</tilted></_>
    <_>
      <rects>
        <_>
          0 9 2 15 -1.</_>
        <_>
          1 9 1 15 2.</_></rects>
      <tilted>0</tilted></_>
    <_>
      <rects>
        <_>
          0 10 8 8 -1.</_>
        <_>
          4 10 4 8 2.</_></rects>
      <tilted>0</tilted></_>
    <_>
      <rects>
        <_>
          0 12 8 1 -1.</_>
        <_>
          4 12 4 1 2.</_></rects>
      <tilted>0</tilted></_>
    <_>
      <rects>
        <_>
          0 13 8 8 -1.</_>
        <_>
          4 13 4 8 2.</_></rects>
      <tilted>0</tilted></_>
    <_>
      <rects>
        <_>
          0 14 6 6 -1.</_>
        <_>
          3 14 3 6 2.</_></rects>
      <tilted>0</tilted></_>
    <_>
      <rects>
        <_>
          0 14 4 2 -1.</_>
        <_>
          0 15 4 1 2.</_></rects>
      <tilted>0</tilted></_>
    <_>
      <rects>
        <_>
          0 15 6 3 -1.</_>
        <_>
          3 15 3 3 2.</_></rects>
      <tilted>0</tilted></_>
    <_>
      <rects>
        <_>
          0 16 16 8 -1.</_>
        <_>
          8 16 8 8 2.</_></rects>
      <tilted>0</tilted></_>
    <_>
      <rects>
        <_>
          0 22 11 2 -1.</_>
        <_>
          0 23 11 1 2.</_></rects>
      <tilted>0</tilted></_>
    <_>
      <rects>
        <_>
          1 2 6 11 -1.</_>
        <_>
          4 2 3 11 2.</_></rects>
      <tilted>0</tilted></_>
    <_>
      <rects>
        <_>
          1 2 21 6 -1.</_>
        <_>
          1 5 21 3 2.</_></rects>
      <tilted>0</tilted></_>
    <_>
      <rects>
        <_>
          1 8 1 12 -1.</_>
        <_>
          1 12 1 4 2.</_></rects>
      <tilted>0</tilted></_>
    <_>
      <rects>
        <_>
          1 10 23 2 -1.</_>
        <_>
          1 11 23 1 2.</_></rects>
      <tilted>0</tilted></_>
    <_>
      <rects>
        <_>
          1 11 6 10 -1.</_>
        <_>
          4 11 3 10 2.</_></rects>
      <tilted>0</tilted></_>
    <_>
      <rects>
        <_>
          1 16 10 6 -1.</_>
        <_>
          1 19 10 3 2.</_></rects>
      <tilted>0</tilted></_>
    <_>
      <rects>
        <_>
          1 18 16 6 -1.</_>
        <_>
          1 21 16 3 2.</_></rects>
      <tilted>0</tilted></_>
    <_>
      <rects>
        <_>
          1 23 6 1 -1.</_>
        <_>
          4 23 3 1 2.</_></rects>
      <tilted>0</tilted></_>
    <_>
      <rects>
        <_>
          2 2 12 4 -1.</_>
        <_>
          2 2 6 2 2.</_>
        <_>
          8 4 6 2 2.</_></rects>
      <tilted>0</tilted></_>
    <_>
      <rects>
        <_>
          2 8 19 2 -1.</_>
        <_>
          2 9 19 1 2.</_></rects>
      <tilted>0</tilted></_>
    <_>
      <rects>
        <_>
          2 16 7 8 -1.</_>
        <_>
          2 20 7 4 2.</_></rects>
      <tilted>0</tilted></_>
    <_>
      <rects>
        <_>
          3 0 14 6 -1.</_>
        <_>
          3 3 14 3 2.</_></rects>
      <tilted>0</tilted></_>
    <_>
      <rects>
        <_>
          3 0 18 18 -1.</_>
        <_>
          3 9 18 9 2.</_></rects>
      <tilted>0</tilted></_>
    <_>
      <rects>
        <_>
          3 0 20 18 -1.</_>
        <_>
          3 9 20 9 2.</_></rects>
      <tilted>0</tilted></_>
    <_>
      <rects>
        <_>
          3 2 17 2 -1.</_>
        <_>
          3 3 17 1 2.</_></rects>
      <tilted>0</tilted></_>
    <_>
      <rects>
        <_>
          3 6 21 2 -1.</_>
        <_>
          3 7 21 1 2.</_></rects>
      <tilted>0</tilted></_>
    <_>
      <rects>
        <_>
          3 14 18 10 -1.</_>
        <_>
          3 19 18 5 2.</_></rects>
      <tilted>0</tilted></_>
    <_>
      <rects>
        <_>
          3 16 9 8 -1.</_>
        <_>
          3 20 9 4 2.</_></rects>
      <tilted>0</tilted></_>
    <_>
      <rects>
        <_>
          3 16 18 8 -1.</_>
        <_>
          3 20 18 4 2.</_></rects>
      <tilted>0</tilted></_>
    <_>
      <rects>
        <_>
          4 0 8 18 -1.</_>
        <_>
          4 0 4 9 2.</_>
        <_>
          8 9 4 9 2.</_></rects>
      <tilted>0</tilted></_>
    <_>
      <rects>
        <_>
          4 1 6 2 -1.</_>
        <_>
          7 1 3 2 2.</_></rects>
      <tilted>0</tilted></_>
    <_>
      <rects>
        <_>
          4 1 17 16 -1.</_>
        <_>
          4 9 17 8 2.</_></rects>
      <tilted>0</tilted></_>
    <_>
      <rects>
        <_>
          4 3 9 1 -1.</_>
        <_>
          7 3 3 1 2.</_></rects>
      <tilted>0</tilted></_>
    <_>
      <rects>
        <_>
          4 7 6 14 -1.</_>
        <_>
          4 7 3 7 2.</_>
        <_>
          7 14 3 7 2.</_></rects>
      <tilted>0</tilted></_>
    <_>
      <rects>
        <_>
          4 13 15 3 -1.</_>
        <_>
          4 14 15 1 2.</_></rects>
      <tilted>0</tilted></_>
    <_>
      <rects>
        <_>
          4 23 3 1 -1.</_>
        <_>
          5 23 1 1 2.</_></rects>
      <tilted>0</tilted></_>
    <_>
      <rects>
        <_>
          5 4 8 6 -1.</_>
        <_>
          9 4 4 6 2.</_></rects>
      <tilted>0</tilted></_>
    <_>
      <rects>
        <_>
          5 7 2 2 -1.</_>
        <_>
          5 8 2 1 2.</_></rects>
      <tilted>0</tilted></_>
    <_>
      <rects>
        <_>
          5 12 1 12 -1.</_>
        <_>
          5 18 1 6 2.</_></rects>
      <tilted>0</tilted></_>
    <_>
      <rects>
        <_>
          5 13 10 3 -1.</_>
        <_>
          5 14 10 1 2.</_></rects>
      <tilted>0</tilted></_>
    <_>
      <rects>
        <_>
          5 23 6 1 -1.</_>
        <_>
          7 23 2 1 2.</_></rects>
      <tilted>0</tilted></_>
    <_>
      <rects>
        <_>
          6 1 8 18 -1.</_>
        <_>
          6 10 8 9 2.</_></rects>
      <tilted>0</tilted></_>
    <_>
      <rects>
        <_>
          6 10 10 6 -1.</_>
        <_>
          6 13 10 3 2.</_></rects>
      <tilted>0</tilted></_>
    <_>
      <rects>
        <_>
          6 10 15 2 -1.</_>
        <_>
          6 11 15 1 2.</_></rects>
      <tilted>0</tilted></_>
    <_>
      <rects>
        <_>
          6 11 17 2 -1.</_>
        <_>
          6 12 17 1 2.</_></rects>
      <tilted>0</tilted></_>
    <_>
      <rects>
        <_>
          6 18 13 6 -1.</_>
        <_>
          6 21 13 3 2.</_></rects>
      <tilted>0</tilted></_>
    <_>
      <rects>
        <_>
          7 10 4 1 -1.</_>
        <_>
          9 10 2 1 2.</_></rects>
      <tilted>0</tilted></_>
    <_>
      <rects>
        <_>
          7 11 2 2 -1.</_>
        <_>
          8 11 1 2 2.</_></rects>
      <tilted>0</tilted></_>
    <_>
      <rects>
        <_>
          8 4 1 2 -1.</_>
        <_>
          8 5 1 1 2.</_></rects>
      <tilted>0</tilted></_>
    <_>
      <rects>
        <_>
          8 23 16 1 -1.</_>
        <_>
          16 23 8 1 2.</_></rects>
      <tilted>0</tilted></_>
    <_>
      <rects>
        <_>
          9 1 10 10 -1.</_>
        <_>
          9 1 5 5 2.</_>
        <_>
          14 6 5 5 2.</_></rects>
      <tilted>0</tilted></_>
    <_>
      <rects>
        <_>
          9 1 11 16 -1.</_>
        <_>
          9 9 11 8 2.</_></rects>
      <tilted>0</tilted></_>
    <_>
      <rects>
        <_>
          9 6 1 2 -1.</_>
        <_>
          9 7 1 1 2.</_></rects>
      <tilted>0</tilted></_>
    <_>
      <rects>
        <_>
          9 9 1 2 -1.</_>
        <_>
          9 10 1 1 2.</_></rects>
      <tilted>0</tilted></_>
    <_>
      <rects>
        <_>
          9 11 4 2 -1.</_>
        <_>
          9 11 2 1 2.</_>
        <_>
          11 12 2 1 2.</_></rects>
      <tilted>0</tilted></_>
    <_>
      <rects>
        <_>
          9 13 4 2 -1.</_>
        <_>
          9 14 4 1 2.</_></rects>
      <tilted>0</tilted></_>
    <_>
      <rects>
        <_>
          9 16 6 8 -1.</_>
        <_>
          9 20 6 4 2.</_></rects>
      <tilted>0</tilted></_>
    <_>
      <rects>
        <_>
          10 2 1 4 -1.</_>
        <_>
          10 4 1 2 2.</_></rects>
      <tilted>0</tilted></_>
    <_>
      <rects>
        <_>
          10 4 4 3 -1.</_>
        <_>
          10 5 4 1 2.</_></rects>
      <tilted>0</tilted></_>
    <_>
      <rects>
        <_>
          10 8 12 6 -1.</_>
        <_>
          10 11 12 3 2.</_></rects>
      <tilted>0</tilted></_>
    <_>
      <rects>
        <_>
          10 13 14 11 -1.</_>
        <_>
          17 13 7 11 2.</_></rects>
      <tilted>0</tilted></_>
    <_>
      <rects>
        <_>
          10 20 7 2 -1.</_>
        <_>
          10 21 7 1 2.</_></rects>
      <tilted>0</tilted></_>
    <_>
      <rects>
        <_>
          10 21 2 1 -1.</_>
        <_>
          11 21 1 1 2.</_></rects>
      <tilted>0</tilted></_>
    <_>
      <rects>
        <_>
          11 4 1 6 -1.</_>
        <_>
          11 6 1 2 2.</_></rects>
      <tilted>0</tilted></_>
    <_>
      <rects>
        <_>
          11 5 3 3 -1.</_>
        <_>
          11 6 3 1 2.</_></rects>
      <tilted>0</tilted></_>
    <_>
      <rects>
        <_>
          11 9 1 2 -1.</_>
        <_>
          11 10 1 1 2.</_></rects>
      <tilted>0</tilted></_>
    <_>
      <rects>
        <_>
          11 10 2 4 -1.</_>
        <_>
          11 12 2 2 2.</_></rects>
      <tilted>0</tilted></_>
    <_>
      <rects>
        <_>
          11 10 13 4 -1.</_>
        <_>
          11 12 13 2 2.</_></rects>
      <tilted>0</tilted></_>
    <_>
      <rects>
        <_>
          11 11 1 2 -1.</_>
        <_>
          11 12 1 1 2.</_></rects>
      <tilted>0</tilted></_>
    <_>
      <rects>
        <_>
          11 11 12 2 -1.</_>
        <_>
          11 12 12 1 2.</_></rects>
      <tilted>0</tilted></_>
    <_>
      <rects>
        <_>
          12 1 12 4 -1.</_>
        <_>
          12 1 6 2 2.</_>
        <_>
          18 3 6 2 2.</_></rects>
      <tilted>0</tilted></_>
    <_>
      <rects>
        <_>
          12 11 8 1 -1.</_>
        <_>
          16 11 4 1 2.</_></rects>
      <tilted>0</tilted></_>
    <_>
      <rects>
        <_>
          12 16 12 3 -1.</_>
        <_>
          16 16 4 3 2.</_></rects>
      <tilted>0</tilted></_>
    <_>
      <rects>
        <_>
          13 3 9 14 -1.</_>
        <_>
          13 10 9 7 2.</_></rects>
      <tilted>0</tilted></_>
    <_>
      <rects>
        <_>
          13 7 2 2 -1.</_>
        <_>
          13 8 2 1 2.</_></rects>
      <tilted>0</tilted></_>
    <_>
      <rects>
        <_>
          13 16 11 8 -1.</_>
        <_>
          13 20 11 4 2.</_></rects>
      <tilted>0</tilted></_>
    <_>
      <rects>
        <_>
          13 20 5 4 -1.</_>
        <_>
          13 22 5 2 2.</_></rects>
      <tilted>0</tilted></_>
    <_>
      <rects>
        <_>
          13 22 8 2 -1.</_>
        <_>
          13 23 8 1 2.</_></rects>
      <tilted>0</tilted></_>
    <_>
      <rects>
        <_>
          14 0 2 6 -1.</_>
        <_>
          14 3 2 3 2.</_></rects>
      <tilted>0</tilted></_>
    <_>
      <rects>
        <_>
          14 3 10 18 -1.</_>
        <_>
          19 3 5 18 2.</_></rects>
      <tilted>0</tilted></_>
    <_>
      <rects>
        <_>
          14 5 10 2 -1.</_>
        <_>
          19 5 5 2 2.</_></rects>
      <tilted>0</tilted></_>
    <_>
      <rects>
        <_>
          14 6 7 2 -1.</_>
        <_>
          14 7 7 1 2.</_></rects>
      <tilted>0</tilted></_>
    <_>
      <rects>
        <_>
          14 7 2 1 -1.</_>
        <_>
          15 7 1 1 2.</_></rects>
      <tilted>0</tilted></_>
    <_>
      <rects>
        <_>
          14 18 10 6 -1.</_>
        <_>
          14 18 5 3 2.</_>
        <_>
          19 21 5 3 2.</_></rects>
      <tilted>0</tilted></_>
    <_>
      <rects>
        <_>
          15 2 8 10 -1.</_>
        <_>
          19 2 4 10 2.</_></rects>
      <tilted>0</tilted></_>
    <_>
      <rects>
        <_>
          15 3 7 2 -1.</_>
        <_>
          15 4 7 1 2.</_></rects>
      <tilted>0</tilted></_>
    <_>
      <rects>
        <_>
          15 5 1 2 -1.</_>
        <_>
          15 6 1 1 2.</_></rects>
      <tilted>0</tilted></_>
    <_>
      <rects>
        <_>
          15 6 8 1 -1.</_>
        <_>
          19 6 4 1 2.</_></rects>
      <tilted>0</tilted></_>
    <_>
      <rects>
        <_>
          15 8 6 2 -1.</_>
        <_>
          15 9 6 1 2.</_></rects>
      <tilted>0</tilted></_>
    <_>
      <rects>
        <_>
          15 9 4 4 -1.</_>
        <_>
          17 9 2 4 2.</_></rects>
      <tilted>0</tilted></_>
    <_>
      <rects>
        <_>
          15 9 9 2 -1.</_>
        <_>
          15 10 9 1 2.</_></rects>
      <tilted>0</tilted></_>
    <_>
      <rects>
        <_>
          16 10 8 11 -1.</_>
        <_>
          20 10 4 11 2.</_></rects>
      <tilted>0</tilted></_>
    <_>
      <rects>
        <_>
          16 11 4 6 -1.</_>
        <_>
          18 11 2 6 2.</_></rects>
      <tilted>0</tilted></_>
    <_>
      <rects>
        <_>
          16 11 8 8 -1.</_>
        <_>
          20 11 4 8 2.</_></rects>
      <tilted>0</tilted></_>
    <_>
      <rects>
        <_>
          16 19 6 5 -1.</_>
        <_>
          19 19 3 5 2.</_></rects>
      <tilted>0</tilted></_>
    <_>
      <rects>
        <_>
          17 6 6 15 -1.</_>
        <_>
          20 6 3 15 2.</_></rects>
      <tilted>0</tilted></_>
    <_>
      <rects>
        <_>
          17 7 6 17 -1.</_>
        <_>
          20 7 3 17 2.</_></rects>
      <tilted>0</tilted></_>
    <_>
      <rects>
        <_>
          17 12 6 8 -1.</_>
        <_>
          20 12 3 8 2.</_></rects>
      <tilted>0</tilted></_>
    <_>
      <rects>
        <_>
          17 13 6 7 -1.</_>
        <_>
          20 13 3 7 2.</_></rects>
      <tilted>0</tilted></_>
    <_>
      <rects>
        <_>
          17 16 6 8 -1.</_>
        <_>
          17 16 3 4 2.</_>
        <_>
          20 20 3 4 2.</_></rects>
      <tilted>0</tilted></_>
    <_>
      <rects>
        <_>
          18 0 6 3 -1.</_>
        <_>
          21 0 3 3 2.</_></rects>
      <tilted>0</tilted></_>
    <_>
      <rects>
        <_>
          18 2 6 10 -1.</_>
        <_>
          18 2 3 5 2.</_>
        <_>
          21 7 3 5 2.</_></rects>
      <tilted>0</tilted></_>
    <_>
      <rects>
        <_>
          18 2 6 12 -1.</_>
        <_>
          18 2 3 6 2.</_>
        <_>
          21 8 3 6 2.</_></rects>
      <tilted>0</tilted></_>
    <_>
      <rects>
        <_>
          18 7 1 9 -1.</_>
        <_>
          18 10 1 3 2.</_></rects>
      <tilted>0</tilted></_>
    <_>
      <rects>
        <_>
          18 12 6 2 -1.</_>
        <_>
          21 12 3 2 2.</_></rects>
      <tilted>0</tilted></_>
    <_>
      <rects>
        <_>
          18 13 2 2 -1.</_>
        <_>
          18 14 2 1 2.</_></rects>
      <tilted>0</tilted></_>
    <_>
      <rects>
        <_>
          18 18 6 4 -1.</_>
        <_>
          18 20 6 2 2.</_></rects>
      <tilted>0</tilted></_>
    <_>
      <rects>
        <_>
          18 20 3 4 -1.</_>
        <_>
          18 22 3 2 2.</_></rects>
      <tilted>0</tilted></_>
    <_>
      <rects>
        <_>
          19 3 3 21 -1.</_>
        <_>
          19 10 3 7 2.</_></rects>
      <tilted>0</tilted></_>
    <_>
      <rects>
        <_>
          19 12 2 1 -1.</_>
        <_>
          20 12 1 1 2.</_></rects>
      <tilted>0</tilted></_>
    <_>
      <rects>
        <_>
          20 5 4 7 -1.</_>
        <_>
          22 5 2 7 2.</_></rects>
      <tilted>0</tilted></_>
    <_>
      <rects>
        <_>
          20 22 3 2 -1.</_>
        <_>
          21 22 1 2 2.</_></rects>
      <tilted>0</tilted></_>
    <_>
      <rects>
        <_>
          21 20 2 2 -1.</_>
        <_>
          22 20 1 2 2.</_></rects>
      <tilted>0</tilted></_>
    <_>
      <rects>
        <_>
          22 1 2 15 -1.</_>
        <_>
          23 1 1 15 2.</_></rects>
      <tilted>0</tilted></_>
    <_>
      <rects>
        <_>
          22 1 2 18 -1.</_>
        <_>
          23 1 1 18 2.</_></rects>
      <tilted>0</tilted></_>
    <_>
      <rects>
        <_>
          22 11 2 1 -1.</_>
        <_>
          23 11 1 1 2.</_></rects>
      <tilted>0</tilted></_>
    <_>
      <rects>
        <_>
          22 17 2 5 -1.</_>
        <_>
          23 17 1 5 2.</_></rects>
      <tilted>0</tilted></_>
    <_>
      <rects>
        <_>
          23 3 1 20 -1.</_>
        <_>
          23 13 1 10 2.</_></rects>
      <tilted>0</tilted></_>
    <_>
      <rects>
        <_>
          23 10 1 9 -1.</_>
        <_>
          23 13 1 3 2.</_></rects>
      <tilted>0</tilted></_></features></cascade>
</opencv_storage>
