<?xml version="1.0"?>
<opencv_storage>
<stage5>
  <maxWeakCount>7</maxWeakCount>
  <stageThreshold>-6.1312276124954224e-01</stageThreshold>
  <weakClassifiers>
    <_>
      <internalNodes>
        0 -1 38864 3.9631998538970947e-01</internalNodes>
      <leafValues>
        -5.4464286565780640e-01 7.6106196641921997e-01</leafValues></_>
    <_>
      <internalNodes>
        0 -1 48391 -6.9886013865470886e-02</internalNodes>
      <leafValues>
        6.9045788049697876e-01 -4.8995846509933472e-01</leafValues></_>
    <_>
      <internalNodes>
        0 -1 109321 -2.0368201658129692e-02</internalNodes>
      <leafValues>
        -9.5660531520843506e-01 3.3006039261817932e-01</leafValues></_>
    <_>
      <internalNodes>
        0 -1 141507 -3.7679684464819729e-04</internalNodes>
      <leafValues>
        5.2078866958618164e-01 -6.4224427938461304e-01</leafValues></_>
    <_>
      <internalNodes>
        0 -1 152585 -2.3361824452877045e-02</internalNodes>
      <leafValues>
        5.8954507112503052e-01 -5.4044920206069946e-01</leafValues></_>
    <_>
      <internalNodes>
        0 -1 138967 2.3049492388963699e-02</internalNodes>
      <leafValues>
        -4.1974300146102905e-01 7.2075456380844116e-01</leafValues></_>
    <_>
      <internalNodes>
        0 -1 15558 2.4219501763582230e-02</internalNodes>
      <leafValues>
        -5.6757926940917969e-01 5.6386035680770874e-01</leafValues></_></weakClassifiers></stage5>
</opencv_storage>
