<?xml version="1.0"?>
<opencv_storage>
<stage16>
  <maxWeakCount>10</maxWeakCount>
  <stageThreshold>-5.8539772033691406e-01</stageThreshold>
  <weakClassifiers>
    <_>
      <internalNodes>
        0 -1 142101 -2.9256637208163738e-04</internalNodes>
      <leafValues>
        -8.8235294818878174e-01 3.4246575832366943e-01</leafValues></_>
    <_>
      <internalNodes>
        0 -1 80293 -1.0286892950534821e-01</internalNodes>
      <leafValues>
        6.2146311998367310e-01 -3.8191846013069153e-01</leafValues></_>
    <_>
      <internalNodes>
        0 -1 55070 1.8492512404918671e-02</internalNodes>
      <leafValues>
        -2.4322673678398132e-01 6.2278121709823608e-01</leafValues></_>
    <_>
      <internalNodes>
        0 -1 152052 -3.8783691707067192e-04</internalNodes>
      <leafValues>
        -5.7474458217620850e-01 2.9091495275497437e-01</leafValues></_>
    <_>
      <internalNodes>
        0 -1 161831 -3.7964964576531202e-05</internalNodes>
      <leafValues>
        -5.7012146711349487e-01 2.3279608786106110e-01</leafValues></_>
    <_>
      <internalNodes>
        0 -1 58459 -8.1367626786231995e-02</internalNodes>
      <leafValues>
        3.1872236728668213e-01 -5.3098583221435547e-01</leafValues></_>
    <_>
      <internalNodes>
        0 -1 111391 2.1795220673084259e-02</internalNodes>
      <leafValues>
        -5.5918461084365845e-01 3.1285017728805542e-01</leafValues></_>
    <_>
      <internalNodes>
        0 -1 40579 3.2707434147596359e-03</internalNodes>
      <leafValues>
        -2.8889936208724976e-01 6.4901167154312134e-01</leafValues></_>
    <_>
      <internalNodes>
        0 -1 133744 8.9861080050468445e-04</internalNodes>
      <leafValues>
        2.1144241094589233e-01 -9.6820878982543945e-01</leafValues></_>
    <_>
      <internalNodes>
        0 -1 147108 4.5172912068665028e-03</internalNodes>
      <leafValues>
        -2.2160245478153229e-01 8.6853039264678955e-01</leafValues></_></weakClassifiers></stage16>
</opencv_storage>
