<?xml version="1.0"?>
<opencv_storage>
<stage14>
  <maxWeakCount>10</maxWeakCount>
  <stageThreshold>-6.1819326877593994e-01</stageThreshold>
  <weakClassifiers>
    <_>
      <internalNodes>
        0 -1 48462 -1.7525242269039154e-01</internalNodes>
      <leafValues>
        6.7136150598526001e-01 -3.9240506291389465e-01</leafValues></_>
    <_>
      <internalNodes>
        0 -1 161303 7.5977563392370939e-04</internalNodes>
      <leafValues>
        2.6543220877647400e-01 -8.5086524486541748e-01</leafValues></_>
    <_>
      <internalNodes>
        0 -1 2586 2.2935066372156143e-03</internalNodes>
      <leafValues>
        -5.4078966379165649e-01 3.5481357574462891e-01</leafValues></_>
    <_>
      <internalNodes>
        0 -1 5923 8.0911871045827866e-03</internalNodes>
      <leafValues>
        1.9587141275405884e-01 -7.7106869220733643e-01</leafValues></_>
    <_>
      <internalNodes>
        0 -1 153562 -9.4510056078433990e-03</internalNodes>
      <leafValues>
        2.8219953179359436e-01 -5.5447238683700562e-01</leafValues></_>
    <_>
      <internalNodes>
        0 -1 133643 -2.6447869837284088e-02</internalNodes>
      <leafValues>
        8.1410634517669678e-01 -2.0542073249816895e-01</leafValues></_>
    <_>
      <internalNodes>
        0 -1 6073 -3.3339770743623376e-04</internalNodes>
      <leafValues>
        -7.6238137483596802e-01 2.1669928729534149e-01</leafValues></_>
    <_>
      <internalNodes>
        0 -1 162034 -1.9929207337554544e-04</internalNodes>
      <leafValues>
        -7.3089736700057983e-01 2.0260745286941528e-01</leafValues></_>
    <_>
      <internalNodes>
        0 -1 24632 -5.8558057993650436e-02</internalNodes>
      <leafValues>
        6.2745118141174316e-01 -2.9456433653831482e-01</leafValues></_>
    <_>
      <internalNodes>
        0 -1 105184 1.2668692506849766e-03</internalNodes>
      <leafValues>
        -2.7409264445304871e-01 6.5701830387115479e-01</leafValues></_></weakClassifiers></stage14>
</opencv_storage>
