<?xml version="1.0"?>
<opencv_storage>
<stage17>
  <maxWeakCount>6</maxWeakCount>
  <stageThreshold>-4.8738795518875122e-01</stageThreshold>
  <weakClassifiers>
    <_>
      <internalNodes>
        0 -1 49759 7.5169593095779419e-02</internalNodes>
      <leafValues>
        5.3230768442153931e-01 -9.8400002717971802e-01</leafValues></_>
    <_>
      <internalNodes>
        0 -1 13353 -1.4333183644339442e-03</internalNodes>
      <leafValues>
        -6.6007375717163086e-01 3.4514003992080688e-01</leafValues></_>
    <_>
      <internalNodes>
        0 -1 150231 -9.4852373003959656e-02</internalNodes>
      <leafValues>
        5.6528723239898682e-01 -4.5408478379249573e-01</leafValues></_>
    <_>
      <internalNodes>
        0 -1 154560 2.0524137653410435e-03</internalNodes>
      <leafValues>
        2.2238937020301819e-01 -9.3149179220199585e-01</leafValues></_>
    <_>
      <internalNodes>
        0 -1 116533 -9.5022022724151611e-03</internalNodes>
      <leafValues>
        -7.3664921522140503e-01 2.4467460811138153e-01</leafValues></_>
    <_>
      <internalNodes>
        0 -1 22258 7.1435086429119110e-02</internalNodes>
      <leafValues>
        -3.7260109186172485e-01 6.1565226316452026e-01</leafValues></_></weakClassifiers></stage17>
</opencv_storage>
